{"learner":{"attributes":{"best_iteration":"4","best_ntree_limit":"5"},"feature_names":[],"feature_types":[],"gradient_booster":{"model":{"gbtree_model_param":{"num_parallel_tree":"1","num_trees":"5","size_leaf_vector":"0"},"tree_info":[0,0,0,0,0],"trees":[{"base_weights":[-1.8635511E0,-1.8837882E0,1.1428572E0,1.2857143E0,-1.8940331E0,-1.5384616E-1,1.4042553E0,1.6190476E0,1.8181819E-1,-1.4736842E0,-1.9580603E0,-6.666667E-1,5E-1,5E-1,1.6571429E0,-1.793358E0,-4.3137255E-1,-1.9649328E0,7.4074075E-2,-1E0,1.3333334E0,-1.9441341E0,-6.5346533E-1,7.586207E-1,-1.0232558E0,-1.9876866E0,-1.5213675E0,-1.0769231E0,8.888889E-1,-1.9824817E0,-9.714286E-1,-1.3623189E0,7.777778E-1,-8.3333336E-2,1.6279069E0,-1.2201258E0,1.0588236E0,-1.9895046E0,-1.0909091E0,-1.6224189E0,1E0,1.8181819E-1,1.2727273E0,-1.3103448E0,4E-1,-1.6E0,1.5384616E-1,-5.714286E-1,1.3846154E0,9.62963E-1,-1.2E0,-1.7209302E0,-5.974026E-1,-0E0,1.3846154E0,-1.5294118E0,2.2222222E-1,-1.6975945E0,-1.0769231E0,-0E0,1.3333334E0,-1.68E0,5E-1,-2.2222222E-1,-1.709091E0,6.666667E-1,-5E-1,-1.2E0,5E-1,-0E0,1.6363636E0,-0E0,1.5294118E0,-1.6E0,2.2222222E-1,-1.804878E0,-0E0,1.6E0,-1.8431373E0,-1.3488373E0,1.5384616E-1],"categories":[],"categories_nodes":[],"categories_segments":[],"categories_sizes":[],"default_left":[1,1,1,1,1,1,1,0,0,1,1,0,0,1,0,1,1,1,1,0,0,1,1,1,1,1,1,0,1,0,1,1,1,1,0,1,1,0,1,1,1,0,0,1,0,1,1,1,1,1,1,1,1,0,0,0,0,0,1,0,0,0,0,0,0,0,0,0,0,0,0,0,0,0,0,0,0,0,0,0,0],"id":0,"left_children":[1,3,5,7,9,11,13,-1,-1,15,17,-1,-1,19,-1,21,23,25,27,-1,-1,29,31,33,35,37,39,-1,41,-1,43,45,47,49,-1,51,53,-1,55,57,59,-1,-1,61,-1,63,65,67,69,71,73,75,77,-1,-1,-1,-1,-1,79,-1,-1,-1,-1,-1,-1,-1,-1,-1,-1,-1,-1,-1,-1,-1,-1,-1,-1,-1,-1,-1,-1],"loss_changes":[1.2387988E2,6.697949E1,4.961422E0,2.2813854E0,5.0450684E1,1.4230769E0,1.8583584E0,0E0,0E0,8.785748E1,2.4121582E1,0E0,0E0,6.3333335E0,0E0,3.3661865E1,4.567775E1,1.4244629E1,7.2877493E0,0E0,0E0,4.7510376E0,2.6676762E1,1.6054466E1,1.8917553E1,4.7753906E-1,2.3980026E1,0E0,9.898989E-1,0E0,4.591132E0,6.462433E0,8.159951E0,1.5175926E1,0E0,1.1368446E1,1.4660635E0,0E0,3.5068326E0,1.6472473E0,1.3333335E0,0E0,0E0,5.691724E0,0E0,1.8747444E0,1.4230769E0,2.9571428E0,2.2657347E0,3.6819172E0,3.9111109E0,3.1060677E0,5.5643597E1,0E0,0E0,0E0,0E0,0E0,4.55814E0,0E0,0E0,0E0,0E0,0E0,0E0,0E0,0E0,0E0,0E0,0E0,0E0,0E0,0E0,0E0,0E0,0E0,0E0,0E0,0E0,0E0,0E0],"parents":[2147483647,0,0,1,1,2,2,3,3,4,4,5,5,6,6,9,9,10,10,13,13,15,15,16,16,17,17,18,18,21,21,22,22,23,23,24,24,25,25,26,26,28,28,30,30,31,31,32,32,33,33,35,35,36,36,38,38,39,39,40,40,43,43,45,45,46,46,47,47,48,48,49,49,50,50,51,51,52,52,58,58],"right_children":[2,4,6,8,10,12,14,-1,-1,16,18,-1,-1,20,-1,22,24,26,28,-1,-1,30,32,34,36,38,40,-1,42,-1,44,46,48,50,-1,52,54,-1,56,58,60,-1,-1,62,-1,64,66,68,70,72,74,76,78,-1,-1,-1,-1,-1,80,-1,-1,-1,-1,-1,-1,-1,-1,-1,-1,-1,-1,-1,-1,-1,-1,-1,-1,-1,-1,-1,-1],"split_conditions":[2.5065842E0,-2.6970286E0,-1.7292442E0,-2.757244E0,-8.8081807E-1,5.0087047E-1,-7.014811E-1,4.8571432E-1,5.454546E-2,7.716018E-1,1.9094484E0,-2.0000002E-1,1.5E-1,-1.3552669E0,4.9714288E-1,1.2569116E0,6.352062E-1,1.5389202E0,-7.803465E-1,-3E-1,4.0000004E-1,2.240633E0,1.3775458E0,1.0206301E0,1.3352473E0,1.7990537E0,1.1266484E0,-3.2307696E-1,-6.910385E-1,-5.9474456E-1,3.7315643E-1,1.7034252E0,5E-1,3.6653474E-1,4.883721E-1,1.4688811E0,1.4190754E0,-5.968514E-1,9.0440094E-1,5.244945E-1,-7.887192E-1,5.454546E-2,3.818182E-1,-9.9803483E-1,1.20000005E-1,-1.3949447E0,5E-1,1.8994126E0,-1.195722E0,8.712131E-1,1.3509145E0,1.9997716E0,1.5083888E0,-0E0,4.1538465E-1,-4.5882356E-1,6.666667E-2,-5.0927836E-1,1.7582603E0,-0E0,4.0000004E-1,-5.04E-1,1.5E-1,-6.666667E-2,-5.127273E-1,2.0000002E-1,-1.5E-1,-3.6E-1,1.5E-1,-0E0,4.909091E-1,-0E0,4.5882356E-1,-4.8000002E-1,6.666667E-2,-5.4146343E-1,-0E0,4.8000002E-1,-5.529412E-1,-4.046512E-1,4.615385E-2],"split_indices":[3,3,2,3,2,1,4,0,0,0,3,0,0,2,0,4,1,4,2,0,0,3,3,0,4,3,3,0,2,0,0,4,6,1,0,0,0,0,4,3,2,0,0,2,0,0,7,3,0,0,4,3,1,0,0,0,0,0,4,0,0,0,0,0,0,0,0,0,0,0,0,0,0,0,0,0,0,0,0,0,0],"split_type":[0,0,0,0,0,0,0,0,0,0,0,0,0,0,0,0,0,0,0,0,0,0,0,0,0,0,0,0,0,0,0,0,0,0,0,0,0,0,0,0,0,0,0,0,0,0,0,0,0,0,0,0,0,0,0,0,0,0,0,0,0,0,0,0,0,0,0,0,0,0,0,0,0,0,0,0,0,0,0,0,0],"sum_hessian":[1.99975E3,1.98675E3,1.3E1,6E0,1.98075E3,2.25E0,1.075E1,4.25E0,1.75E0,2.65E2,1.71575E3,1.25E0,1E0,3E0,7.75E0,2.0225E2,6.275E1,1.71E3,5.75E0,1E0,2E0,1.78E2,2.425E1,2.075E1,4.2E1,1.62325E3,8.675E1,2.25E0,3.5E0,1.7025E2,7.75E0,1.625E1,8E0,1.1E1,9.75E0,3.875E1,3.25E0,1.61875E3,4.5E0,8.375E1,3E0,1.75E0,1.75E0,6.25E0,1.5E0,1.4E1,2.25E0,2.5E0,5.5E0,5.75E0,5.25E0,2.05E1,1.825E1,1E0,2.25E0,3.25E0,1.25E0,7.175E1,1.2E1,1E0,2E0,5.25E0,1E0,1.25E0,1.275E1,1.25E0,1E0,1.5E0,1E0,1E0,4.5E0,2.5E0,3.25E0,4E0,1.25E0,1.95E1,1E0,6.5E0,1.175E1,9.75E0,2.25E0],"tree_param":{"num_deleted":"0","num_feature":"8","num_nodes":"81","size_leaf_vector":"0"}},{"base_weights":[-1.4366881E0,-1.4645303E0,1.1947084E-2,1.0181069E0,-1.4730419E0,-3.6203003E-1,1.5309424E0,1.2927783E0,1.4718561E-1,-1.503967E0,-1.0414026E0,-7.939543E-1,9.6522564E-1,-1.2479172E0,-1.539627E0,-1.2135252E0,1.2398653E0,-1.0594305E0,6.449846E-1,-1.899132E-1,1.2171109E0,-1.5155398E0,-4.0935695E-1,-1.5440601E0,-9.598051E-1,-7.6493907E-1,-1.2777529E0,2.711755E-1,1.4541684E0,-1.4026717E0,-4.6159297E-1,-6.422651E-2,1.1530197E0,-1.5412586E0,-1.0484357E0,1.1752315E0,-7.179265E-1,-1.236925E0,6.305214E-1,-3.487786E-1,-1.1019541E0,-1.3036613E0,-2.3775423E-1,6.5073454E-1,-7.320565E-1,-1.3816854E0,1.4987467E-1,-2.2222222E-1,1.4328935E0,-3.8172704E-1,-1.3388901E0,-1.4090631E0,2.2696562E-2,-9.759809E-1,4.7460154E-1,-1.3699602E0,-2.9427722E-1,-1.3624249E0,-8.209468E-1,-8.934271E-1,4.4501114E-1,-1.0305854E0,-8.015346E-2,-6.291478E-1,8.7177825E-1,-1.0075252E0,1.3103174E0,1.6272334E-2,-1.2539585E0,-3.552439E-1,9.6268934E-1,-1.068391E0,6.112988E-1,-1.3711962E0,-3.9528018E-1,1.2996891E-1,-1.0958359E0,-6.244013E-1,5.0859654E-1],"categories":[],"categories_nodes":[],"categories_segments":[],"categories_sizes":[],"default_left":[1,1,1,1,1,1,0,0,0,1,1,1,1,1,1,1,1,1,1,0,0,1,1,0,1,1,1,0,0,0,1,0,0,0,1,1,1,1,0,1,1,1,1,0,1,0,1,0,0,1,0,0,0,1,1,0,1,1,1,0,0,0,1,0,0,0,0,0,0,0,0,0,0,0,0,0,0,0,0],"id":1,"left_children":[1,3,5,7,9,11,-1,-1,-1,13,15,17,19,21,23,25,27,29,31,-1,-1,33,35,-1,37,39,41,-1,-1,-1,43,-1,-1,-1,45,47,49,51,-1,53,55,57,59,-1,61,-1,63,-1,-1,65,-1,-1,-1,67,69,-1,71,73,75,-1,-1,-1,77,-1,-1,-1,-1,-1,-1,-1,-1,-1,-1,-1,-1,-1,-1,-1,-1],"loss_changes":[7.420703E1,3.9635742E1,2.0821854E1,1.4262486E0,2.2447266E1,1.7642504E1,0E0,0E0,0E0,1.3385986E1,5.0006805E1,9.37736E0,2.4654932E0,4.655536E1,2.2893066E0,2.3463898E0,1.5073509E0,3.37298E0,1.5752546E0,0E0,0E0,2.9403687E-1,2.6380852E1,0E0,6.8509874E0,1.9915724E0,2.3689423E0,0E0,0E0,0E0,3.0746205E0,0E0,0E0,0E0,4.769245E0,3.5201502E0,8.744818E0,2.6488953E0,0E0,5.133318E0,1.5227413E0,1.6268463E0,2.026952E0,0E0,1.3610029E0,0E0,2.453791E0,0E0,0E0,3.3258E1,0E0,0E0,0E0,1.5264745E0,2.1982327E0,0E0,3.0998626E0,1.7706299E-1,3.5456343E0,0E0,0E0,0E0,1.4115907E0,0E0,0E0,0E0,0E0,0E0,0E0,0E0,0E0,0E0,0E0,0E0,0E0,0E0,0E0,0E0,0E0],"parents":[2147483647,0,0,1,1,2,2,3,3,4,4,5,5,9,9,10,10,11,11,12,12,13,13,14,14,15,15,16,16,17,17,18,18,21,21,22,22,24,24,25,25,26,26,30,30,34,34,35,35,36,36,37,37,39,39,40,40,41,41,42,42,44,44,46,46,49,49,53,53,54,54,56,56,57,57,58,58,62,62],"right_children":[2,4,6,8,10,12,-1,-1,-1,14,16,18,20,22,24,26,28,30,32,-1,-1,34,36,-1,38,40,42,-1,-1,-1,44,-1,-1,-1,46,48,50,52,-1,54,56,58,60,-1,62,-1,64,-1,-1,66,-1,-1,-1,68,70,-1,72,74,76,-1,-1,-1,78,-1,-1,-1,-1,-1,-1,-1,-1,-1,-1,-1,-1,-1,-1,-1,-1],"split_conditions":[2.1001306E0,-2.6970286E0,1.1237409E0,-2.757244E0,1.4762516E0,2.6721768E0,4.5928276E-1,3.878335E-1,4.4155683E-2,-8.863998E-1,1.2219894E0,-9.5896256E-1,-1.7292442E0,7.716018E-1,1.6384792E0,-7.4127424E-1,1.523253E0,3.233508E-1,2.245651E0,-5.697396E-2,3.651333E-1,1.2569116E0,2.9936686E-1,-4.6321806E-1,1.0375717E0,8.054997E-1,9.6607405E-1,8.135265E-2,4.3625054E-1,-4.2080152E-1,1.650311E-1,-1.9267954E-2,3.459059E-1,-4.6237758E-1,1.668587E0,8.2140744E-1,1.374053E0,-5.4033124E-1,1.8915643E-1,4.994048E-1,1.6799245E0,1.8209288E0,5E-1,1.9522037E-1,2.3911715E0,-4.1450563E-1,-9.999737E-2,-6.666667E-2,4.2986807E-1,1.2696584E0,-4.0166703E-1,-4.2271894E-1,6.8089687E-3,-1.7080827E-1,-9.394264E-1,-4.1098806E-1,5E-1,3.858089E0,-9.4576454E-1,-2.6802814E-1,1.3350335E-1,-3.0917564E-1,-1.4278297E0,-1.8874435E-1,2.615335E-1,-3.0225757E-1,3.9309523E-1,4.8817005E-3,-3.7618756E-1,-1.0657317E-1,2.8880683E-1,-3.205173E-1,1.8338965E-1,-4.1135886E-1,-1.1858406E-1,3.8990676E-2,-3.287508E-1,-1.8732038E-1,1.5257896E-1],"split_indices":[3,3,4,3,4,3,0,0,0,2,3,2,2,0,3,2,4,0,3,0,0,4,1,0,4,3,3,0,0,0,1,0,0,0,3,0,1,2,0,3,4,4,6,0,3,0,0,0,0,0,0,0,0,1,2,0,6,2,3,0,0,0,2,0,0,0,0,0,0,0,0,0,0,0,0,0,0,0,0],"split_type":[0,0,0,0,0,0,0,0,0,0,0,0,0,0,0,0,0,0,0,0,0,0,0,0,0,0,0,0,0,0,0,0,0,0,0,0,0,0,0,0,0,0,0,0,0,0,0,0,0,0,0,0,0,0,0,0,0,0,0,0,0,0,0,0,0,0,0,0,0,0,0,0,0,0,0,0,0,0,0],"sum_hessian":[1.8384043E3,1.8037262E3,3.467804E1,5.757572E0,1.7979686E3,2.8438208E1,6.239831E0,4.008873E0,1.748699E0,1.6754458E3,1.2252284E2,2.1759045E1,6.679164E0,2.0921413E2,1.4662317E3,1.1436221E2,8.160631E0,1.8592564E1,3.1664813E0,1.2397478E0,5.4394164E0,1.5798624E2,5.1227886E1,1.453456E3,1.277564E1,1.5940265E1,9.842194E1,1.8887073E0,6.2719235E0,1.0956041E1,7.6365213E0,1.6861767E0,1.4803047E0,1.4756187E2,1.0424367E1,7.891947E0,4.3335938E1,1.106904E1,1.7065995E0,8.043148E0,7.8971167E0,9.5782295E1,2.639655E0,1.2186434E0,6.4178777E0,8.036415E0,2.3879523E0,1.25E0,6.641947E0,2.916194E1,1.4173999E1,9.633852E0,1.4351883E0,4.460255E0,3.582893E0,5.4068303E0,2.4902864E0,8.376295E1,1.2019348E1,1.1891497E0,1.4505055E0,4.003602E0,2.414276E0,1.2103374E0,1.1776148E0,2.1583786E1,7.578154E0,1.1821127E0,3.2781422E0,1.4276978E0,2.1551952E0,1.2456639E0,1.2446225E0,8.2596085E1,1.1668558E0,2.8135865E0,9.205762E0,1.2230859E0,1.19119E0],"tree_param":{"num_deleted":"0","num_feature":"8","num_nodes":"79","size_leaf_vector":"0"}},{"base_weights":[-1.2335091E0,-1.2609488E0,-1.973768E-2,8.49672E-1,-1.2688841E0,-3.2142225E-1,1.2890419E0,1.1047131E0,1.1924379E-1,-1.300706E0,-8.5146004E-1,-6.442565E-1,7.899441E-1,-1.0595528E0,-1.3346726E0,-9.985476E-1,9.9546045E-1,-8.7807304E-1,5.049545E-1,-1.5862963E-1,1.017635E0,-1.3145181E0,-3.231963E-1,-1.3367484E0,-4.514521E-1,-1.0511862E0,-5.7776564E-1,-3.219171E-2,1.1530135E0,-1.1178644E0,-1.4243579E-1,9.8481184E-1,-2.1322139E-2,1.1378757E0,2.3698434E-1,-1.3324243E0,-8.215266E-1,5.698786E-1,-7.848735E-1,-7.857464E-1,-1.3383526E0,-9.8647356E-1,3.9165834E-1,-6.600807E-1,-1.112883E0,-8.2938534E-1,5.1058704E-1,4.030108E-1,1.293188E0,-1.1858336E0,-2.701509E-1,3.0476525E-1,-8.899793E-1,-1.1289579E0,4.9622014E-1,-1.0117371E-1,1.1834168E0,-1.1763555E0,-2.5235894E-1,2.1253586E-1,-1.067199E0,-7.973324E-1,-2.1758795E-2,-1.1327158E0,-3.3753255E-1,-1.2417657E0,-2.540457E-2,-1.2730845E0,-4.0027684E-1,6.4244825E-1,-1.7724097E-1,5.504109E-1,-9.231253E-1,1.0964451E0,-1.1448485E0,-8.9600265E-1,9.070642E-2,-5.444516E-1,4.599883E-1,-1.158677E0,-5.5964756E-1,-7.8344834E-1,2.3767973E-1,-7.954457E-1,4.093219E-1],"categories":[],"categories_nodes":[],"categories_segments":[],"categories_sizes":[],"default_left":[1,1,1,1,1,1,0,0,0,1,1,1,1,1,1,1,1,1,1,0,1,1,1,1,1,1,1,0,1,1,1,0,0,0,0,0,1,1,1,1,0,0,0,1,1,1,0,0,0,1,0,1,0,0,0,1,0,0,1,0,0,1,1,1,1,0,1,0,0,0,0,0,0,0,0,0,0,0,0,0,0,0,0,0,0],"id":2,"left_children":[1,3,5,7,9,11,-1,-1,-1,13,15,17,19,21,23,25,27,29,31,-1,33,35,37,39,41,43,45,-1,47,49,51,-1,-1,-1,-1,-1,53,55,57,59,-1,-1,-1,61,63,65,-1,-1,-1,67,-1,69,-1,-1,-1,71,-1,-1,73,-1,-1,75,77,79,81,-1,83,-1,-1,-1,-1,-1,-1,-1,-1,-1,-1,-1,-1,-1,-1,-1,-1,-1,-1],"loss_changes":[5.1614258E1,2.6471436E1,1.43491125E1,1.0377827E0,1.8962158E1,1.1086521E1,0E0,0E0,0E0,1.006958E1,3.0854378E1,6.730032E0,1.6917467E0,3.2982758E1,1.6425781E0,1.6587448E0,1.4309807E0,3.3345156E0,1.1802155E0,0E0,2.793393E-1,6.929016E-2,1.9863892E1,2.8076172E-2,2.3631732E0,1.4301987E0,4.146746E0,0E0,2.6643753E-1,5.318756E-1,2.2820396E0,0E0,0E0,0E0,0E0,0E0,3.4888492E0,6.9655538E0,6.2625275E0,1.9037724E0,0E0,0E0,0E0,1.268929E0,7.8684235E-1,3.7560244E0,0E0,0E0,0E0,4.0872002E-1,0E0,8.476815E-1,0E0,0E0,0E0,5.254746E0,0E0,0E0,1.8835571E1,0E0,0E0,1.1376104E0,1.1635528E0,4.4818878E-1,1.0379832E0,0E0,1.9638723E0,0E0,0E0,0E0,0E0,0E0,0E0,0E0,0E0,0E0,0E0,0E0,0E0,0E0,0E0,0E0,0E0,0E0,0E0],"parents":[2147483647,0,0,1,1,2,2,3,3,4,4,5,5,9,9,10,10,11,11,12,12,13,13,14,14,15,15,16,16,17,17,18,18,20,20,21,21,22,22,23,23,24,24,25,25,26,26,28,28,29,29,30,30,36,36,37,37,38,38,39,39,43,43,44,44,45,45,49,49,51,51,55,55,58,58,61,61,62,62,63,63,64,64,66,66],"right_children":[2,4,6,8,10,12,-1,-1,-1,14,16,18,20,22,24,26,28,30,32,-1,34,36,38,40,42,44,46,-1,48,50,52,-1,-1,-1,-1,-1,54,56,58,60,-1,-1,-1,62,64,66,-1,-1,-1,68,-1,70,-1,-1,-1,72,-1,-1,74,-1,-1,76,78,80,82,-1,84,-1,-1,-1,-1,-1,-1,-1,-1,-1,-1,-1,-1,-1,-1,-1,-1,-1,-1],"split_conditions":[2.0700228E0,-2.6970286E0,1.1237409E0,-2.757244E0,1.4762516E0,2.6721768E0,3.8671258E-1,3.3141392E-1,3.577314E-2,-8.863998E-1,1.2219894E0,-9.5896256E-1,-1.7292442E0,7.716018E-1,1.8793408E0,1.8209288E0,-1.2157232E0,6.470876E-1,-7.171483E-1,-4.758889E-2,6.850609E-1,1.1725492E0,6.352062E-1,-2.471221E0,-5.21309E-1,-7.4127424E-1,5.044227E-1,-9.657513E-3,1.523253E0,2.5166202E0,1.4076369E0,2.9544356E-1,-6.396642E-3,3.413627E-1,7.10953E-2,-3.997273E-1,1.2020767E0,1.0206301E0,1.4688811E0,4.3437014E0,-4.015058E-1,-2.9594207E-1,1.17497504E-1,1.7269258E0,9.6607405E-1,4.2252094E-1,1.5317611E-1,1.2090324E-1,3.879564E-1,3.7315643E-1,-8.104527E-2,5E-1,-2.669938E-1,-3.3868736E-1,1.4886604E-1,3.6653474E-1,3.5502505E-1,-3.5290664E-1,1.5083888E0,6.376076E-2,-3.201597E-1,5E-1,-2.4941437E-1,2.136119E0,5E-1,-3.7252975E-1,-4.237342E-1,-3.8192537E-1,-1.2008306E-1,1.9273448E-1,-5.3172294E-2,1.6512328E-1,-2.769376E-1,3.2893354E-1,-3.4345454E-1,-2.688008E-1,2.7211929E-2,-1.6333549E-1,1.379965E-1,-3.476031E-1,-1.6789427E-1,-2.3503451E-1,7.130393E-2,-2.386337E-1,1.2279657E-1],"split_indices":[3,3,4,3,4,3,0,0,0,2,3,2,2,0,3,4,2,0,4,0,4,1,1,3,4,2,3,0,4,3,1,0,0,0,0,0,4,0,0,2,0,0,0,4,3,2,0,0,0,0,0,7,0,0,0,1,0,0,1,0,0,5,0,2,6,0,0,0,0,0,0,0,0,0,0,0,0,0,0,0,0,0,0,0,0],"split_type":[0,0,0,0,0,0,0,0,0,0,0,0,0,0,0,0,0,0,0,0,0,0,0,0,0,0,0,0,0,0,0,0,0,0,0,0,0,0,0,0,0,0,0,0,0,0,0,0,0,0,0,0,0,0,0,0,0,0,0,0,0,0,0,0,0,0,0,0,0,0,0,0,0,0,0,0,0,0,0,0,0,0,0,0,0],"sum_hessian":[1.5494691E3,1.5151768E3,3.429236E1,5.2779465E0,1.5098988E3,2.8481539E1,5.810821E0,3.5322018E0,1.7457448E0,1.4009803E3,1.0891849E2,2.2396124E1,6.0854154E0,1.7694107E2,1.2240393E3,1.013096E2,7.608889E0,1.8805851E1,3.5902727E0,1.2366731E0,4.848742E0,1.3084908E2,4.6091995E1,1.2206569E3,3.3823779E0,8.871362E1,1.259598E1,1.1172448E0,6.4916444E0,1.3790919E1,5.0149317E0,1.4222176E0,2.168055E0,3.8050635E0,1.0436788E0,1.2461996E2,6.2291236E0,1.5627526E1,3.0464468E1,4.968466E0,1.2156885E3,1.9652364E0,1.4171414E0,1.3681734E1,7.503188E1,1.0423973E1,2.172007E0,1.6324261E0,4.859218E0,1.2397995E1,1.3929247E0,3.5084136E0,1.5065181E0,5.1669393E0,1.0621845E0,7.862778E0,7.764748E0,1.686038E1,1.3604089E1,1.146569E0,3.821897E0,1.1055481E1,2.6262531E0,7.271108E1,2.3208027E0,6.5300417E0,3.8939314E0,1.0600044E1,1.7979499E0,1.8673359E0,1.6410775E0,4.5702057E0,3.2925725E0,5.326188E0,8.277901E0,9.94187E0,1.1136115E0,1.1971699E0,1.4290831E0,6.858229E1,4.1287932E0,1.1034055E0,1.2173975E0,1.1056703E0,2.7882612E0],"tree_param":{"num_deleted":"0","num_feature":"8","num_nodes":"85","size_leaf_vector":"0"}},{"base_weights":[-1.1111627E0,-1.1391615E0,-2.6325759E-2,7.268028E-1,-1.1470312E0,-2.7266186E-1,1.1256521E0,9.7608376E-1,9.664951E-2,-1.1863092E0,-7.443391E-1,-5.064356E-1,8.215279E-1,-9.5224243E-1,-1.2198514E0,-8.740158E-1,7.798103E-1,-6.5220094E-1,6.528309E-1,4.8441626E-2,1.0128989E0,-1.1978326E0,-2.9437235E-1,-1.2235867E0,-4.816237E-1,-9.112717E-1,-3.853462E-1,-4.2858335E-1,1.2550861E0,-9.0038747E-1,3.092892E-2,-1.2213936E0,-7.1574175E-1,4.3887582E-1,-6.991579E-1,-6.5672547E-1,-1.2254059E0,-9.588395E-1,5.90837E-1,-5.784819E-1,-9.7055453E-1,-6.974727E-1,7.3997056E-1,-6.880698E-1,5.4623578E-2,-1.0016823E0,-2.2282478E-1,3.876328E-1,-7.8697425E-1,-1.058709E0,2.7375054E-1,-1.4682971E-1,9.8865116E-1,-1.036157E0,-2.369153E-1,1.7509109E-1,-9.4258463E-1,-2.2660021E-1,-8.279154E-1,-1.0057536E0,-4.9536833E-1,-1.0326645E0,-6.3597135E-2,-1.0465668E0,-2.6512092E-1,-8.0025756E-1,4.823325E-1,-1.5648952E-1,8.375618E-1,9.897357E-1,-6.07467E-1,1.1465546E0,3.445276E-1,-4.1800615E-1,-1.1233903E0,9.2674536E-1,-1.0019089E0,-7.088782E-1,3.250505E-1,-9.955525E-1,-2.3381911E-1,-1.0288013E0,-2.9923508E-1,-8.1794393E-1,7.194347E-1,4.7907487E-1,-7.4115056E-1,-3.8568118E-1,-1.1233321E0,2.2682546E-1,-4.7682616E-1],"categories":[],"categories_nodes":[],"categories_segments":[],"categories_sizes":[],"default_left":[1,1,1,1,1,1,0,0,0,1,1,1,1,1,1,1,1,1,0,0,0,1,1,1,1,1,1,1,0,1,1,0,1,1,1,1,0,0,0,1,1,1,0,0,0,1,1,1,0,0,0,1,1,1,1,0,0,1,1,1,1,0,1,1,0,0,0,1,0,0,0,0,0,0,0,0,0,0,0,0,0,0,0,0,0,0,0,0,0,0,0],"id":3,"left_children":[1,3,5,7,9,11,-1,-1,-1,13,15,17,19,21,23,25,27,29,-1,-1,-1,31,33,35,37,39,41,43,-1,45,47,-1,49,51,53,55,-1,-1,-1,57,59,61,-1,-1,-1,63,65,67,-1,-1,-1,69,71,73,75,-1,-1,77,79,81,83,-1,85,87,-1,-1,-1,89,-1,-1,-1,-1,-1,-1,-1,-1,-1,-1,-1,-1,-1,-1,-1,-1,-1,-1,-1,-1,-1,-1,-1],"loss_changes":[3.8149292E1,1.8827148E1,9.5718155E0,8.10199E-1,1.8422485E1,7.5020857E0,0E0,0E0,0E0,7.5563965E0,2.2651154E1,4.3873997E0,7.288418E-1,2.2870499E1,2.0791016E0,1.5224304E0,5.847054E0,3.643508E0,0E0,0E0,0E0,3.109436E-1,1.2297402E1,1.8737793E-1,3.9037728E0,1.3105927E0,3.6853008E0,4.5824856E-1,0E0,8.5269547E-1,2.2451644E0,0E0,2.759439E0,4.9699726E0,3.8692865E0,1.4092934E0,0E0,0E0,0E0,1.2889662E0,8.2424927E-1,1.5445075E0,0E0,0E0,0E0,1.6392422E-1,1.7397995E0,1.4287099E0,0E0,0E0,0E0,4.8552475E0,4.042287E-1,3.382206E-1,1.1997324E1,0E0,0E0,2.4533248E0,7.101383E-1,8.750229E-1,3.4974375E0,0E0,1.7107105E0,1.8797684E-1,0E0,0E0,0E0,5.062013E-1,0E0,0E0,0E0,0E0,0E0,0E0,0E0,0E0,0E0,0E0,0E0,0E0,0E0,0E0,0E0,0E0,0E0,0E0,0E0,0E0,0E0,0E0,0E0],"parents":[2147483647,0,0,1,1,2,2,3,3,4,4,5,5,9,9,10,10,11,11,12,12,13,13,14,14,15,15,16,16,17,17,21,21,22,22,23,23,24,24,25,25,26,26,27,27,29,29,30,30,32,32,33,33,34,34,35,35,39,39,40,40,41,41,45,45,46,46,47,47,51,51,52,52,53,53,54,54,57,57,58,58,59,59,60,60,62,62,63,63,67,67],"right_children":[2,4,6,8,10,12,-1,-1,-1,14,16,18,20,22,24,26,28,30,-1,-1,-1,32,34,36,38,40,42,44,-1,46,48,-1,50,52,54,56,-1,-1,-1,58,60,62,-1,-1,-1,64,66,68,-1,-1,-1,70,72,74,76,-1,-1,78,80,82,84,-1,86,88,-1,-1,-1,90,-1,-1,-1,-1,-1,-1,-1,-1,-1,-1,-1,-1,-1,-1,-1,-1,-1,-1,-1,-1,-1,-1,-1],"split_conditions":[2.059987E0,-2.6970286E0,1.1237409E0,-2.757244E0,1.4292502E0,2.747446E0,3.3769563E-1,2.9282513E-1,2.8994855E-2,-8.863998E-1,1.2671509E0,-8.612819E-1,-1.575746E0,7.716018E-1,1.7990537E0,1.8679302E0,5E-1,6.470876E-1,1.9584928E-1,1.4532489E-2,3.038697E-1,1.2569116E0,6.352062E-1,-2.471221E0,5.597238E-1,-7.4127424E-1,4.692971E-1,7.716018E-1,3.7652585E-1,-1.0231527E0,1.4076369E0,-3.664181E-1,1.668587E0,1.0206301E0,1.4688811E0,4.3437014E0,-3.6762178E-1,-2.8765187E-1,1.772511E-1,8.0048174E-1,1.7872591E0,4.2252094E-1,2.2199118E-1,-2.0642096E-1,1.6387073E-2,9.279016E-1,2.245651E0,9.708244E-1,-2.3609228E-1,-3.176127E-1,8.2125165E-2,2.3219898E-1,5.0087047E-1,7.023741E-1,1.5083888E0,5.2527327E-2,-2.827754E-1,4.994048E-1,1.6799245E0,9.6607405E-1,-1.7586722E0,-3.0979937E-1,2.0089345E0,-1.1783264E0,-7.953628E-2,-2.4007727E-1,1.4469975E-1,-8.346518E-1,2.5126854E-1,2.9692072E-1,-1.822401E-1,3.439664E-1,1.0335828E-1,-1.2540185E-1,-3.3701712E-1,2.7802363E-1,-3.005727E-1,-2.1266347E-1,9.751516E-2,-2.9866576E-1,-7.014573E-2,-3.0864042E-1,-8.9770526E-2,-2.4538319E-1,2.1583042E-1,1.4372246E-1,-2.2234517E-1,-1.1570436E-1,-3.3699965E-1,6.804764E-2,-1.4304785E-1],"split_indices":[3,3,4,3,4,3,0,0,0,2,3,2,2,0,3,4,6,0,0,0,0,4,1,3,4,2,3,0,0,2,1,0,3,0,0,2,0,0,0,3,2,2,0,0,0,4,3,0,0,0,0,1,1,1,1,0,0,3,4,3,3,0,4,1,0,0,0,4,0,0,0,0,0,0,0,0,0,0,0,0,0,0,0,0,0,0,0,0,0,0,0],"split_type":[0,0,0,0,0,0,0,0,0,0,0,0,0,0,0,0,0,0,0,0,0,0,0,0,0,0,0,0,0,0,0,0,0,0,0,0,0,0,0,0,0,0,0,0,0,0,0,0,0,0,0,0,0,0,0,0,0,0,0,0,0,0,0,0,0,0,0,0,0,0,0,0,0,0,0,0,0,0,0,0,0,0,0,0,0,0,0,0,0,0,0],"sum_hessian":[1.2559705E3,1.2243217E3,3.1648878E1,4.758257E0,1.2195634E3,2.6702246E1,4.946633E0,3.0161448E0,1.7421123E0,1.1094075E3,1.1015589E2,2.24442E1,4.258045E0,1.4273727E2,9.6667017E2,1.0191167E2,8.244226E0,2.0325844E1,2.118356E0,1.0935466E0,3.1644988E0,1.03338936E2,3.939834E1,9.611495E2,5.520685E0,9.388883E1,8.022835E0,2.3549595E0,5.889267E0,1.467593E1,5.6499143E0,9.706173E1,6.277204E0,1.3983581E1,2.5414757E1,4.2327476E0,9.5691675E2,3.893935E0,1.6267503E0,1.582299E1,7.806584E1,6.5783987E0,1.4444364E0,1.2563326E0,1.098627E0,1.2351095E1,2.3248348E0,4.3004622E0,1.3494521E0,4.609542E0,1.667662E0,7.125416E0,6.858165E0,1.3980587E1,1.1434169E1,1.1816825E0,3.0510652E0,7.35524E0,8.467751E0,7.164243E1,6.4234085E0,3.8914704E0,2.686928E0,1.12449665E1,1.1061286E0,1.2040277E0,1.120807E0,2.2416773E0,2.058785E0,1.723722E0,5.401694E0,4.8814745E0,1.9766905E0,2.4452114E0,1.1535376E1,4.451453E0,6.9827156E0,3.7723062E0,3.5829334E0,6.077196E0,2.3905544E0,6.893743E1,2.7050002E0,5.3337774E0,1.0896313E0,1.6546253E0,1.0323029E0,1.7971493E0,9.447817E0,1.1534152E0,1.088262E0],"tree_param":{"num_deleted":"0","num_feature":"8","num_nodes":"91","size_leaf_vector":"0"}},{"base_weights":[-1.02608E0,-1.0696378E0,-3.1631213E-1,-1.1058502E0,-5.490306E-1,-5.5568284E-1,6.2862337E-1,6.120556E-1,-1.1146576E0,-6.684573E-1,7.3550963E-1,-7.0449847E-1,5.896934E-1,-2.2683086E-1,1.0650932E0,8.6264116E-1,7.8354955E-2,-8.9359945E-1,-1.1451415E0,-3.593723E-1,-7.91457E-1,1.4117281E-1,8.6765134E-1,-9.318938E-1,-1.306052E-1,1.7752565E-2,9.311167E-1,-8.2664317E-1,5.9195167E-1,8.064744E-2,1.2934608E0,-1.0983002E0,-2.84666E-1,-5.8722115E-1,-1.1472231E0,4.3173593E-1,-4.584217E-1,-9.270646E-1,-5.2130556E-1,2.2009328E-1,1.0059198E0,-1.0012256E0,1.2659085E-1,8.0152947E-1,-3.8861E-1,-4.104594E-1,4.0545058E-1,-1.1330798E0,-2.7137932E-1,6.748569E-1,-5.741256E-1,2.984184E-1,-8.9394045E-1,3.2390636E-1,-5.502284E-1,6.9610596E-2,-9.702603E-1,1.3215283E-1,-6.2912005E-1,-1.1248311E0,-4.6293133E-1,-1.6400173E-1,-6.857273E-1,-6.768753E-1,5.319127E-1,9.404708E-1,-4.8107335E-1,-2.948487E-1,-9.7537977E-1,-6.3814026E-1,2.3193735E-1,-1.1390755E0,-6.3158137E-1,3.9234468E-1,-1.816221E-1,-7.7877134E-1,7.235012E-2,-7.6703537E-1,5.033145E-1,-5.575557E-1,3.1511602E-1,-8.690485E-1,-6.479931E-2,2.1293502E-1,1.0686216E0,-8.4310406E-1,7.8516346E-1,-3.2908309E-1,-9.66953E-1,3.0396506E-1,-8.5428494E-1,-1.4485903E-1,-8.922629E-1,5.2449554E-1,-3.8934416E-1,-3.1802595E-1,-9.5227087E-1,-7.992455E-1,-5.5197617E-3,-3.161426E-1,6.259859E-1],"categories":[],"categories_nodes":[],"categories_segments":[],"categories_sizes":[],"default_left":[1,1,1,1,1,1,1,1,1,1,1,1,1,1,1,0,0,1,1,1,1,0,1,1,1,1,0,0,0,0,0,1,1,1,0,0,1,1,1,0,0,1,0,0,1,0,0,0,1,1,1,0,0,0,1,0,1,1,1,0,1,1,1,0,0,1,0,1,0,1,0,0,1,0,0,1,1,1,0,1,1,0,0,0,0,0,0,0,0,0,0,0,0,0,0,0,0,0,0,0,0],"id":4,"left_children":[1,3,5,7,9,11,13,15,17,19,21,23,25,27,29,-1,-1,31,33,35,37,-1,39,41,43,45,-1,-1,-1,-1,-1,47,49,51,-1,-1,53,55,57,-1,-1,59,-1,-1,61,-1,-1,-1,63,65,67,-1,-1,-1,69,-1,71,73,75,-1,77,79,81,-1,-1,83,-1,85,-1,87,-1,-1,89,-1,-1,91,93,95,-1,97,99,-1,-1,-1,-1,-1,-1,-1,-1,-1,-1,-1,-1,-1,-1,-1,-1,-1,-1,-1,-1],"loss_changes":[3.0552246E1,1.7132812E1,1.3738246E1,1.3978882E1,1.0184389E1,8.5561285E0,4.88394E0,6.182225E-1,4.8708496E0,1.9331932E0,3.3700275E-1,5.453785E0,1.162173E0,2.9571648E0,1.7860126E0,0E0,0E0,1.3467674E1,2.1496582E-1,1.6426029E0,1.0148926E0,0E0,1.8977022E-1,2.3603706E0,3.5070567E0,7.102594E-1,0E0,0E0,0E0,0E0,0E0,2.0620117E0,8.487461E0,1.5958259E0,0E0,0E0,1.3898981E0,1.1844349E0,1.2070088E0,0E0,0E0,1.3873768E0,0E0,0E0,6.2699115E-1,0E0,0E0,0E0,1.8715256E0,2.6687522E0,2.2836647E0,0E0,0E0,0E0,1.2116852E0,0E0,7.060566E-1,3.2317364E-1,1.512001E0,0E0,2.4590216E0,1.6133657E0,4.5089698E-1,0E0,0E0,3.5126925E-1,0E0,9.521401E0,0E0,1.1220427E0,0E0,0E0,2.4552717E0,0E0,0E0,6.990671E-1,9.041855E-1,1.7640448E-1,0E0,6.02275E-1,9.9804413E-1,0E0,0E0,0E0,0E0,0E0,0E0,0E0,0E0,0E0,0E0,0E0,0E0,0E0,0E0,0E0,0E0,0E0,0E0,0E0,0E0],"parents":[2147483647,0,0,1,1,2,2,3,3,4,4,5,5,6,6,7,7,8,8,9,9,10,10,11,11,12,12,13,13,14,14,17,17,18,18,19,19,20,20,22,22,23,23,24,24,25,25,31,31,32,32,33,33,36,36,37,37,38,38,41,41,44,44,48,48,49,49,50,50,54,54,56,56,57,57,58,58,60,60,61,61,62,62,65,65,67,67,69,69,72,72,75,75,76,76,77,77,79,79,80,80],"right_children":[2,4,6,8,10,12,14,16,18,20,22,24,26,28,30,-1,-1,32,34,36,38,-1,40,42,44,46,-1,-1,-1,-1,-1,48,50,52,-1,-1,54,56,58,-1,-1,60,-1,-1,62,-1,-1,-1,64,66,68,-1,-1,-1,70,-1,72,74,76,-1,78,80,82,-1,-1,84,-1,86,-1,88,-1,-1,90,-1,-1,92,94,96,-1,98,100,-1,-1,-1,-1,-1,-1,-1,-1,-1,-1,-1,-1,-1,-1,-1,-1,-1,-1,-1,-1],"split_conditions":[1.668587E0,1.5389202E0,1.0454051E0,-2.6970286E0,1.1366843E0,2.6721768E0,5E-1,-2.757244E0,-8.529093E-1,-4.621867E-1,1.6094222E0,6.7199045E-1,-1.4473658E0,1.9395561E0,1.2255774E0,2.5879237E-1,2.3506487E-2,9.210188E-1,-2.476239E0,1.3811247E-1,4.3370262E-1,4.2351846E-2,-9.2179084E-1,-6.826659E-1,2.9936686E-1,5.344544E-1,2.7933502E-1,-2.4799296E-1,1.7758551E-1,2.4194233E-2,3.8803828E-1,1.4370837E0,5.0087047E-1,4.17904E0,-3.4416693E-1,1.2952079E-1,-1.2455277E0,-1.5477498E0,2.7354512E-1,6.6027984E-2,3.0177596E-1,2.240633E0,3.7977256E-2,2.4045885E-1,1.2397172E0,-1.23137824E-1,1.21635176E-1,-3.3992395E-1,1.2972586E0,1.2725787E0,1.374053E0,8.952552E-2,-2.6818216E-1,9.717191E-2,1.8757637E0,2.088318E-2,1.6955916E0,4.2810267E-1,1.8679302E0,-3.3744934E-1,-1.0259435E0,-3.411369E-1,2.15031E0,-2.030626E-1,1.5957381E-1,-1.2263304E0,-1.4432201E-1,1.2696584E0,-2.9261395E-1,8.1051767E-1,6.958121E-2,-3.4172267E-1,1.7269258E0,1.1770341E-1,-5.4486632E-2,6.352062E-1,1.3194641E0,-3.3872795E-1,1.5099436E-1,2.1804178E0,1.9094484E0,-2.6071456E-1,-1.9439794E-2,6.388051E-2,3.205865E-1,-2.5293124E-1,2.3554905E-1,-9.872493E-2,-2.900859E-1,9.118952E-2,-2.562855E-1,-4.345771E-2,-2.676789E-1,1.5734866E-1,-1.1680325E-1,-9.540779E-2,-2.8568128E-1,-2.3977365E-1,-1.6559286E-3,-9.4842784E-2,1.8779579E-1],"split_indices":[3,4,4,3,3,3,6,3,2,2,4,0,2,3,4,0,0,0,3,3,1,0,0,2,1,1,0,0,0,0,0,4,1,2,0,0,0,1,0,0,0,3,0,0,1,0,0,0,3,4,1,0,0,0,4,0,4,2,4,0,2,4,3,0,0,4,0,0,0,3,0,0,4,0,0,1,0,1,0,3,3,0,0,0,0,0,0,0,0,0,0,0,0,0,0,0,0,0,0,0,0],"split_type":[0,0,0,0,0,0,0,0,0,0,0,0,0,0,0,0,0,0,0,0,0,0,0,0,0,0,0,0,0,0,0,0,0,0,0,0,0,0,0,0,0,0,0,0,0,0,0,0,0,0,0,0,0,0,0,0,0,0,0,0,0,0,0,0,0,0,0,0,0,0,0,0,0,0,0,0,0,0,0,0,0,0,0,0,0,0,0,0,0,0,0,0,0,0,0,0,0,0,0,0,0],"sum_hessian":[9.9818176E2,9.3998846E2,5.819332E1,8.778059E2,6.2182533E1,4.676002E1,1.1433297E1,4.1280594E0,8.7367786E2,5.733187E1,4.8506646E0,4.1723873E1,5.0361505E0,4.024949E0,7.4083476E0,2.3896983E0,1.7383609E0,1.09552864E2,7.64125E2,1.7436796E1,3.9895073E1,1.2585224E0,3.592142E0,2.9436398E1,1.2287476E1,2.2758007E0,2.7603498E0,2.317573E0,1.7073759E0,1.6497524E0,5.7585955E0,8.13892E1,2.816367E1,3.8926678E0,7.602323E2,1.5664842E0,1.5870312E1,2.4942877E1,1.4952197E1,1.0880798E0,2.5040624E0,2.7677582E1,1.7588146E0,2.2070549E0,1.00804205E1,1.0535011E0,1.2222997E0,7.774892E1,3.6402826E0,6.2185397E0,2.1945131E1,1.0083016E0,2.8843663E0,1.4012728E0,1.4469039E1,1.0107136E0,2.3932163E1,2.0856192E0,1.2866578E1,2.1622835E1,6.054747E0,6.624529E0,3.4558916E0,2.523707E0,1.1165756E0,5.20818E0,1.0103599E0,1.39621525E1,7.982978E0,1.3172632E1,1.2964071E0,1.4394105E1,9.538058E0,1.0032728E0,1.0823464E0,1.0513446E1,2.3531318E0,4.7621403E0,1.2926065E0,3.5471435E0,3.0773854E0,2.3596408E0,1.0962508E0,1.1786075E0,4.0295725E0,9.406442E0,4.5557113E0,7.8216963E0,5.3509355E0,1.7637798E0,7.774278E0,1.9421065E0,8.57134E0,1.1201375E0,1.2329942E0,2.1842964E0,2.5778441E0,2.155582E0,1.3915614E0,1.0098345E0,2.067551E0],"tree_param":{"num_deleted":"0","num_feature":"8","num_nodes":"101","size_leaf_vector":"0"}}]},"name":"gbtree"},"learner_model_param":{"base_score":"5E-1","boost_from_average":"1","num_class":"0","num_feature":"8","num_target":"1"},"objective":{"name":"binary:logistic","reg_loss_param":{"scale_pos_weight":"1"}}},"version":[1,7,6]}